digraph Tree {
node [shape=box, style="filled, rounded", color="black", fontname="helvetica"] ;
edge [fontname="helvetica"] ;
0 [label=<rain_mmsqm_mean_1995_2024 &le; 783.42<br/>squared_error = 0.2<br/>samples = 2411<br/>value = 3.13>, fillcolor="#f1bd97"] ;
1 [label=<land_cover_Cropland &le; 0.5<br/>squared_error = 0.18<br/>samples = 1811<br/>value = 3.03>, fillcolor="#f3c5a4"] ;
0 -> 1 [labeldistance=2.5, labelangle=45, headlabel="True"] ;
2 [label=<land_use_Fallow land &le; 0.5<br/>squared_error = 0.2<br/>samples = 826<br/>value = 3.16>, fillcolor="#f1ba92"] ;
1 -> 2 ;
3 [label=<land_use_Forestry &le; 0.5<br/>squared_error = 0.19<br/>samples = 704<br/>value = 3.23>, fillcolor="#f0b48a"] ;
2 -> 3 ;
4 [label="(...)", fillcolor="#C0C0C0"] ;
3 -> 4 ;
117 [label="(...)", fillcolor="#C0C0C0"] ;
3 -> 117 ;
198 [label=<rain_mmsqm_mean_1995_2024 &le; 367.9<br/>squared_error = 0.12<br/>samples = 122<br/>value = 2.81>, fillcolor="#f7d8c1"] ;
2 -> 198 ;
199 [label="(...)", fillcolor="#C0C0C0"] ;
198 -> 199 ;
210 [label="(...)", fillcolor="#C0C0C0"] ;
198 -> 210 ;
237 [label=<climate_name_Cfb  Temperate, no dry season, warm summer &le; 0.5<br/>squared_error = 0.13<br/>samples = 985<br/>value = 2.92>, fillcolor="#f5cfb3"] ;
1 -> 237 ;
238 [label=<height_m &le; 269.67<br/>squared_error = 0.14<br/>samples = 748<br/>value = 2.89>, fillcolor="#f6d1b7"] ;
237 -> 238 ;
239 [label="(...)", fillcolor="#C0C0C0"] ;
238 -> 239 ;
352 [label="(...)", fillcolor="#C0C0C0"] ;
238 -> 352 ;
451 [label=<rain_mmsqm_mean_1995_2024 &le; 464.94<br/>squared_error = 0.1<br/>samples = 237<br/>value = 3.0>, fillcolor="#f4c7a8"] ;
237 -> 451 ;
452 [label="(...)", fillcolor="#C0C0C0"] ;
451 -> 452 ;
457 [label="(...)", fillcolor="#C0C0C0"] ;
451 -> 457 ;
522 [label=<temp_c_mean_1995_2024 &le; 14.06<br/>squared_error = 0.15<br/>samples = 600<br/>value = 3.41>, fillcolor="#eca471"] ;
0 -> 522 [labeldistance=2.5, labelangle=-45, headlabel="False"] ;
523 [label=<land_cover_Woodland &le; 0.5<br/>squared_error = 0.14<br/>samples = 569<br/>value = 3.44>, fillcolor="#eca26e"] ;
522 -> 523 ;
524 [label=<climate_name_Dfb  Cold, no dry season, warm summer &le; 0.5<br/>squared_error = 0.15<br/>samples = 381<br/>value = 3.39>, fillcolor="#eda673"] ;
523 -> 524 ;
525 [label="(...)", fillcolor="#C0C0C0"] ;
524 -> 525 ;
570 [label="(...)", fillcolor="#C0C0C0"] ;
524 -> 570 ;
591 [label=<temp_c_mean_1995_2024 &le; 6.63<br/>squared_error = 0.1<br/>samples = 188<br/>value = 3.52>, fillcolor="#ea9b62"] ;
523 -> 591 ;
592 [label="(...)", fillcolor="#C0C0C0"] ;
591 -> 592 ;
597 [label="(...)", fillcolor="#C0C0C0"] ;
591 -> 597 ;
632 [label=<temp_c_mean_1995_2024 &le; 15.69<br/>squared_error = 0.21<br/>samples = 31<br/>value = 2.94>, fillcolor="#f5ccaf"] ;
522 -> 632 ;
633 [label=<climate_name_Csa  Temperate, dry summer, hot summer &le; 0.5<br/>squared_error = 0.19<br/>samples = 22<br/>value = 3.07>, fillcolor="#f2c29e"] ;
632 -> 633 ;
634 [label="(...)", fillcolor="#C0C0C0"] ;
633 -> 634 ;
635 [label="(...)", fillcolor="#C0C0C0"] ;
633 -> 635 ;
638 [label=<squared_error = 0.17<br/>samples = 9<br/>value = 2.71>, fillcolor="#f9e0ce"] ;
632 -> 638 ;
}